{"format_version": 1, "embedding_version": 2, "id": "sonara-vocalness-v1", "labels": ["instrumental", "vocal"], "layers": [{"weights": [[0.8026971469227125, 4.0834002200590955, -0.41860929207428577, 1.649748876953688, -2.7729152092138, -0.01286881508521535, 3.005906485429925, -0.8116421628244302, -1.8816811598581378, -1.5628377875104216, 0.7772209617926623, -4.343136647925151, -0.2806999315953295, -1.4538705854608944, 2.5340237260912835, -1.042540112957896, -1.188514184921637, 1.1652179856969638, -2.005316411593551, -1.6378846395492892, -0.3316813612649224, 0.9645123089891015, -0.5382891193248732, -3.467557519530407, 0.48485336773513443, 0.2553255620407174, -1.3205235401669775, -2.7629847667455403, 2.117268205380339, -5.710312550498334, -10.542550837942024, 1.5431032214714144, 2.002410311604742, -0.8197802646194265, -0.07998469740916035, -1.1831612546285342, -3.817533963018042, -0.4951975010970487, 6.058916926977155, 4.6536080561827164, -0.2609489587423268, 22.537101293666456, 2.2502749017530173, -1.7133350424142282, 0.3168245256918695, 0.28363980469388733, 1.393604053019198, -1.2396406902775134], [-0.11832753735642187, 10.184624521238648, -0.6063800312656267, -0.3544802618218317, -1.1692239058719613, -0.463911909067189, 0.37232321082659403, 3.849524178465382, 0.7210673695319888, 2.0426568341675457, -1.2281130595087466, -2.9431156797410645, -0.11355863914291012, 2.6617654859209825, -0.2311337263903946, 3.0059062870230617, -0.8255750149006436, -2.316463002962499, -0.5840311524352587, -1.1917107269710114, 0.36431497128544615, -2.023593035510964, 0.8199121527518635, -0.5488035750123158, 1.4772564676914628, 2.8398119059706164, -1.0874027491877365, 0.15465475936022058, -2.3326675880729857, -3.0941829208042932, -1.1800986721087647, -0.7495450428337315, 2.001810196947303, -1.3630165405382026, 1.5839742229529945, 1.607663401875853, -1.1277492577209254, 0.5694811791587009, 4.704297419666096, -2.5594495869606426, -0.09429496409013781, -144.78550403763836, 1.138041281569814, 0.04415549566287277, -0.4280733615414319, -0.06280267868352941, -1.1143997813384594, -2.6513653401621546], [0.6718215091699186, 5.270957751612448, 1.18135480211931, -3.1604246425370555, -1.6999077332958434, -0.7168509311800182, -0.607530893229385, 2.183154182538939, -1.7404971887738272, -2.357401675458677, -2.370326979470967, 4.7175624054724645, -2.765353674263355, 1.7082719487602291, 0.6471704057993082, -1.232105479346677, 2.4114602793596887, 0.2609620873441677, 0.23554626546975405, 0.7790093932045564, -1.4070711095083617, -1.8406825271709417, 0.11857164059451168, -2.280703658574936, 1.3628883389889948, 0.111835318336924, -0.1234389685539132, 4.2516162947014395, 3.3938421904433596, -0.5736405621043936, 2.5697974525407195, -2.0843117516673444, -1.101701340167386, 0.6720128466866874, 3.7758836087694436, 0.2809514712124118, 0.35714411206240765, 0.047825018251736975, 8.928447892875786, 3.6901659007155323, -0.36395435078036725, -31.425138563085532, -2.7117781877884024, 0.14917937025597788, -0.046932810302728806, -0.3145592206576692, -1.243739344470382, 0.9273550487542968], [0.12218764666714463, -1.7633029625646717, 1.4893382290946653, -1.3006175780335865, 1.4364624689827683, 0.9308749514257768, 4.211808764385293, 0.26601041860502983, 3.1977230321691135, -4.979573711864144, -1.0116684871126447, -3.1468996837051306, -4.172319107061508, -0.4445804976845638, -0.3885508324856335, -2.6818854333080973, -2.9049819472901395, 0.07322217127840802, -0.23017821929077584, 1.0901637091042153, -1.6012241545624695, 1.7811754628340974, -3.5844082205984433, -1.8211470225265929, 1.0851710765128812, -0.08925227290982017, 3.332654666763848, 7.198770292005244, 4.292566528655312, -2.7953971615789937, -0.463528041789638, 2.66666791479165, -0.19996407225013155, -3.6310942032971516, 2.4628229671540933, 1.888922033751131, -0.2139663837916859, 0.2543224834580243, -2.914610222358501, -1.1780093773523708, -1.5451716834567741, -39.56236452587208, -3.15041474894631, 0.17532736641390018, -0.845068804217831, -0.6876767478527945, -0.6892329799544458, 1.1583608972701753], [-0.49457852099199173, -4.465965411663623, 0.584815494336697, 3.459306863378897, -0.5848697816203647, 2.76530163596695, -2.13598662188415, -1.1895870354837919, -2.028374416264798, 2.5700400222367112, 3.0109457123600927, 0.04949990318630031, -1.1468382934806216, -1.7892189657213913, 2.4058958691365455, -1.3089673721113861, 4.5054461469592475, 0.680787124094683, 1.6307289064359198, -1.2972212115251922, -1.5413491236499586, -0.1320574182726318, -0.9196245683337808, -3.257341717020777, -4.5085133059660505, -0.39897559616464906, 1.1685401121659122, -1.249233598178185, -6.466854849512578, 0.8384139904199681, -4.040216424651757, -0.334951483812368, 2.5260093496842564, -1.1172326124900382, 1.027409264500551, 0.18236487229828915, -3.055840310317758, 1.6568379322481952, -29.639689976254115, 1.5656681175827383, 0.1260745220588455, 33.90536185270426, 0.8691873910055742, -0.2562663593871441, -0.2547772467868915, -0.24071418005184747, -1.8986029817464503, -2.1383101766599864], [1.1174042207322508, -14.616450451994414, -2.6821166134883163, 3.724839053693336, 1.3855897981172294, 0.13708285088362515, 2.6822869607115, -3.5546903127437446, -0.35018942238593603, 1.868088636837043, 0.8716624620154122, -1.02215994435329, 4.119406473328533, 2.5513421235671125, -1.8805383149828767, -3.086853286604291, 4.5686000712248545, 0.7216435405878044, -2.283609818488966, -2.411684858067632, -4.085609916538197, 1.3822943595200146, 0.6806773399396018, 1.2649259594000353, 3.008185982693873, -3.6313656744306733, 1.0244506150761674, -2.771629168712974, 2.4991491883245907, 8.23354038079107, 0.5668781714795073, 3.7679133616120177, -1.9290376657559458, 1.520831584319982, 4.127459426080116, -1.9849320589822705, -2.8605066179241763, -0.2684894211950163, -6.560281724748073, 2.6282400788579445, -0.9353272614956313, 9.437617407036953, 0.560455312428102, -0.7239281685482816, -0.20782351004197355, 0.3494010241573693, 2.108921971047709, 0.1405479823309434], [1.0809447382491977, 18.015907112438086, 0.19941265973989683, -0.4472477291820266, 0.1057722766421854, 0.10204201933348139, -0.6319716100742784, -1.4687168236034618, -1.6958839664899878, -1.8250992873424303, 0.422274710566968, 1.5615512228405681, 3.2067610869954737, 2.383283762953407, -0.36971224071818326, -1.8072281460056514, -3.0797044597608414, 1.0622152753013387, -0.2963978978987056, -0.6543024203444976, 0.5418879605302543, 0.14940689350072403, -0.6354432927724737, 0.6135777804951407, -0.5344280784146769, -0.20356967110688415, -3.4380348133089305, -0.980863406897603, 2.7183947017023287, 1.4016591455200427, 0.5716802208593936, -1.0941759746534914, 0.5939254729352844, -0.8283035985249487, 6.725739891038487, -0.8620638614760001, 1.5368875431878142, 1.2471876611603216, 3.9288035393433307, -1.3603550460888254, -0.10032576016533187, 72.67161665545437, -5.072194217759486, -0.022765263924548945, 0.5626214404947331, 0.23274814805314395, -2.5838158854316755, -0.7055497566880541], [-0.23898499520680294, 27.1447599103589, 0.16580662876403815, -1.3093893830356778, 0.35263164070906455, -2.3281704642135925, 3.2627104671810105, -3.6946192349592817, -0.8178194700199318, 1.8808789864355204, -1.7537916600957724, 5.513864692952334, -4.498479110355373, -0.9339155548710314, -0.19619539021157298, -0.2403910155396016, 0.8541625832595252, -0.778167339932311, 0.26125975514700067, -2.4432638626125947, -2.0977082484036518, -0.45873235855692934, -0.9829236142994935, -4.942176384348213, -1.2901686980369407, 7.795175014115157, 2.3088103759769023, -2.325578688462977, -6.760488894269057, -2.1454216094780203, 0.9977552925889595, 0.21792772604852526, -0.7409438920774353, -2.6137974581451533, 5.43176570566494, -0.03897897695493924, 0.9478389026667515, -0.8636189932620549, -20.963714930139624, 0.26165752289969396, 0.020609305395385677, 137.42729346631512, 2.934848627555244, 0.7081745684807211, 0.9879921055958154, 0.2909465469744114, -3.108587172702596, -0.5692845371364977], [-0.14392483381452228, -21.998094615529507, 0.22993460175900854, 3.165563849166455, 2.6558939296710107, 1.8247481437736397, -0.19386200778343357, 5.914966130174167, 0.6736651618636246, 0.01605895022134822, -2.097965945643261, -6.401494925907956, -1.422934874612873, 2.5176951352546952, -1.888413819172708, 2.2060754756942953, -0.21843641588970292, -1.4301182156612848, -1.5257039551832818, -5.349220688043366, -4.361933873176762, -3.231826866936097, 2.103879033713279, 0.8498609170304057, -0.11528340640847246, -11.644244787930043, -5.229276805935703, 4.452442671434441, 9.378279276605854, 4.585276055900153, -2.388545626436844, 0.6928731291441015, -1.919333335842735, 2.194482595136131, -4.91405959063341, 1.4358728032638717, -4.069671982684548, 0.38935131579760557, 5.101142232796608, -4.045496805304758, 0.5165261313364006, -92.98089259650875, 1.4822717660262152, -0.18171397395666605, -0.84461795842626, 0.023318287869664275, -1.3210859346560757, 0.08352950456124175], [-1.090020250540809, 33.45817786683353, -0.4094399928924049, -2.478778913772743, 1.969860256632018, 1.3551258375689004, -1.2612140106205645, 2.343512213669104, 2.6255557303722967, 1.5005832006192896, -1.4754160138756771, 6.097994130208663, -3.097596176097168, -1.1908057694400105, 1.2721262893056393, 0.14079952753457478, -1.3320866866927896, 0.7764591459569097, -1.1965061987479795, -2.69660851262708, 2.954845000171659, -1.634638609935516, -0.9906084894363681, -1.6543837033724411, -0.047364832402665084, 3.8579719800572114, 3.087094486010729, -4.943533274907701, -1.9158817570440392, -5.035371084357762, -0.8907844166286042, 0.22174589685938895, 0.06788068117575428, -2.1385229833975274, 1.8072826944786151, 1.137079453911578, 1.2677296802085343, -1.5375581926735935, -10.947193721901716, -1.4921522858833853, 0.2330595594602983, 161.24729130930254, 4.402131580023738, -0.3643176101861275, 0.3544909255395542, -0.6786850556100056, 0.07286857679785169, 3.627984114381305], [-0.09636456690622006, 21.99681572375273, 1.2208571239839823, -2.384947770013051, -2.09508791008352, 1.8794528192678561, -3.5618591987992145, -3.4368990298411477, -0.1468691696056587, -5.054273023230575, 0.9196643685149274, 3.0924953409035685, -2.7292510604885236, -3.929828633408186, -0.923054776707136, -1.8730922904188332, -1.5656298459174631, -0.8585911723481434, -0.9187628677248972, 2.0847571603787864, -3.4423973577458975, 2.3989408159886367, 0.16004355712570106, -1.6609160235936478, -2.50806617064436, -2.8542035943241086, -0.8193046037244757, 1.9516005657529474, 6.718457756937002, 2.730314348732074, 0.3359183178038018, -0.37232140331037494, 0.06325884675065167, -0.7818143492397288, 0.29222356590851317, -1.2136125267156903, 0.6565571781239172, -1.5804273257242902, 1.4463198200541219, 0.8099568681972463, 0.6343747929514171, 88.14777512987438, -2.5477705247339473, 0.1851564941360933, -0.4112361206574155, 0.23316184853575808, 0.2046582881604953, 0.3750964476672367], [0.05608083854288301, 16.24359525973683, -1.0101086225854907, 1.389185197531397, 1.9626051000813025, -0.26987702925952506, 2.1925958889238766, -3.0199159742064565, 0.16695202216468005, 2.245521131806476, -4.272783566230771, -0.47341352984771284, 0.42581981314073125, -0.036899185947302494, 1.9745141847470087, 0.6280907890114042, -0.20006421484870543, 0.07628248445834132, 0.9782514093492864, 2.8764018205951, -0.7124002583876526, 0.35278543730869577, -3.1775688131468254, -2.4595922238839165, 4.032380144358461, 0.35378542195288504, -0.10959015102686454, -1.4757394495928529, 2.3553107479790336, 1.7632262412408781, -3.4268126546439177, 0.5896892403174432, -1.1950871712056066, -0.3869608231208977, 0.3717644085250157, 1.0736209496922644, 0.7693185984370182, 0.7640907026671419, 20.232351845356796, -2.012651954725867, 1.0580693354207462, 49.068937308440745, 1.2771033156841674, 0.9377452277112478, 0.2725200735402987, -0.3616948435656271, -0.2892098770315612, -1.776182433829452], [-1.8346380502080144, -21.367693600923914, -0.33923051738251697, -2.7887446716037947, 1.7578009002250703, 2.733747237013408, 0.001284554328244957, -0.8741547803314214, -3.5175023326083297, 1.6930651889260027, 4.288316449498241, 2.1331958584431185, 1.3444113044533872, 2.4073684808665896, -2.2487296831332593, 2.6230173175899107, 3.329824823325612, -0.4168247335313572, 0.8143006839793093, 1.7805225233612978, 1.478513212056579, 2.109996063080559, 0.27027541932408045, 3.7467330743187737, -4.743465621813496, 9.599155586379746, -3.0179647357768986, -1.7454923382057554, -3.2342357876997583, 0.13600723807739482, -5.110256445142604, -3.0046860240859883, -0.44079251609371767, -0.08785527645998366, -2.503238680174217, 0.29024051208181295, 5.392947867109273, 0.7584053706178576, 23.291269999454464, -2.9439389168222756, -1.05046953102286, 63.077155239834795, -2.7120691048950674, -1.5696998437398122, 0.02837249586177664, 0.27114884510432524, 4.423213845822247, 0.7238729904276507], [-0.0631257690239436, -3.762052481225043, 0.9113839485721732, 0.6764241798472711, 1.0681919265402056, 0.12485487400579343, -0.8654583539351587, -1.9757614255196343, -2.4039211961703564, 1.5372908978354645, -0.22511494103150753, -4.206791378569865, -3.446592881135121, -1.736693254882015, -3.42883206490976, -1.918254749087999, -1.1149313808310701, -2.9893429362141912, 1.1393443676875088, 0.33502078624937065, -0.41065745143742644, -0.999034866528478, 1.510598513173558, -0.8364158153621976, -3.249368131438557, -3.121002518531085, 3.1307497919222134, -0.179762500891217, 4.921902651813219, -3.590567061539306, -2.113377230913899, -1.3405577950594632, 0.05604393286409851, -0.688047553055674, 0.1551851725227427, 0.8640763200651873, -1.6668905421956564, 0.4338306833147387, 15.817670459720038, 1.1652449086386485, -0.932397998434436, -164.90796571628516, 3.818829664683855, 0.4719777472225997, 0.05158270672242501, 0.12846019483494298, 1.5843036067480973, -0.5736821894628293], [-0.742873375947334, 26.12425405639861, -0.43357949944374713, -1.8013245841764702, -0.03993106472461655, 0.4186427070757025, -4.374941705378163, -7.7938331960615965, 6.051623004943245, -1.6935336529566063, 4.712174652709894, 3.9920604676691887, 1.8092235372655754, 4.151636637544613, -2.0051851597436174, 3.9459402488575446, 4.034634790280248, 3.9091671651376636, 1.2947591418247824, 1.3764902698219168, 0.6075303993014178, 3.646150262128207, 3.2458163325646336, 3.393504611846465, -2.743420250138343, -1.225628354223595, -2.3434638518621793, 0.7155002497554065, 2.787514337522082, 0.5261881169500889, -2.409272425002113, -2.9842426432452913, -4.459187649708482, -1.1883517319993155, 0.7810075528888267, -1.5442167328542913, -1.202696672652788, -0.754859096282609, 3.532209892432075, -3.672897037314791, 2.8254738511436552, 11.944683097789834, -6.346331606128789, -0.3900918654603152, -0.8143092541124476, -0.05902170147332764, 2.308514946477159, -2.5564032888215706], [-0.23008251774556338, 51.25483582143198, 2.333932652618599, 0.3812192132919794, -0.1740421105619866, 1.1434622376344925, -3.7480352432940234, -1.1685052345414433, 1.710175862944339, -9.610265405660941, -0.5942464176133434, -5.173980826840505, 7.020701336336958, -2.4826629135752243, 3.2249407115383053, -2.7008200160475093, 1.586025546911465, 1.0393998258534511, -1.42844471098521, 0.12146421825617912, 0.40746420524030597, 1.2706625097368562, 2.5315417975438064, -0.33527075085388797, 1.7612111077463446, 4.901784180170999, 5.743948033381678, -2.4197367263617298, -7.8305412853031395, 0.5595223993249776, -0.746402439774698, 0.5537331865013831, 3.508077724437036, -0.012145866375951149, 0.45759359287689166, -0.6380885994450137, 0.9672578004593321, 0.2688216010700192, 7.509723895229446, 0.14718350816841583, -1.283635606341461, 12.683914827498228, 0.23162692600572055, 1.228078004013124, 0.0013088042380639262, -0.014797396874177316, -4.919459966232691, -2.9622851455934454], [0.46210064446822, 38.368000136894274, -2.19923139563955, 0.9082055927123286, 0.814783167220659, -4.739970969413667, 4.4660718853636, 2.4035385409123977, -0.6090266202672002, 2.065397996429323, 1.2595691130859523, -0.41278035673118735, -1.415208282317981, 1.1032529331365295, 1.1680553271669152, -3.190006033617271, -1.5359024433224064, -2.229813497784917, 2.938194439875129, -2.0044501149264633, 1.013999321481628, -0.38623948276166203, 2.7718320440772897, 2.0326427291389604, 1.7899855265042128, 4.026384673484793, 8.62088490134713, -3.7700201749780424, -2.620595987788581, 10.566656634352437, -5.391025845916928, 0.5978329533603837, 0.7355446435401892, -0.7730068534499722, 4.01339271509965, -1.9964190578312457, 2.446082704577502, -1.2872629187249285, 27.84742630198384, 4.096418176178398, 0.6028745710387433, -267.92918115660825, 0.07496252584586796, 0.6665493983838366, 0.33639227558097434, 0.3976514685553727, 0.5677267898572883, -0.8063658453898206], [-0.7403598722484077, 34.53542175796482, -0.5820162946562761, -1.2149296715147588, -1.3247312478470081, 0.3951363548632733, 2.7087353582573783, -2.880114249769831, -3.3709646386822736, -0.004224848348760663, -2.7564803818063552, 5.362817998507129, 0.6856824453502824, -0.25344249756512915, 1.0023567230697055, 0.8527448773563765, 3.8252467879121554, -0.3984499488304701, -2.060198082605108, -3.6390527211473986, -2.361818053922464, 0.8069168958402756, 0.34904564625996837, -3.7077234895863915, -1.4504146184669227, -2.0452495953255245, 1.462019485502492, 1.8161306091287843, 0.004274127021977811, -2.651015306961102, 1.382416085865421, -0.27535854452798053, -1.5496423222419673, -0.3782979996074714, 3.547338409550316, -0.18194103809647372, 2.6480167234976015, 0.7519974963627126, -49.87834020885915, -2.732976398476012, 1.226365800041581, -7.340914338312738, 2.756705269584825, -0.2403678955412044, -0.36314797587041664, -0.48810542603408175, 0.6134616874507531, -0.021795572531551052], [0.6795964727352345, 19.176917023491068, -0.885192521505578, 0.5692488442045334, -3.286153704907981, -3.145175589801216, 2.595674474827576, 3.9951658810358217, -2.3700516758288424, 1.7319142619878232, 3.0953027941715145, 1.7867912436152158, -5.904423046344455, -1.4591959682613835, -1.7512240008722797, -4.42836158911941, 1.3138416434995637, -1.5154537031103994, -0.6459737408107549, 0.7061269953766447, -1.3747187280650608, -1.7617704601661117, -0.09770419780625896, 3.6505999160998592, 0.5655908402066097, 8.009950343073275, 5.572671097755066, -2.113548225124439, -4.9746881229436495, -1.9101713933738858, 3.8877468098566035, 1.4855994079755643, 0.6112840161775089, -2.057903152491991, 0.3724718594929852, -0.9793376631792137, 1.8098412652709441, 2.0322613991000416, -23.185975349658666, -0.542166790214521, 2.0728013393275515, 112.87908402018034, 1.0849881802503163, -0.9155397170676772, 0.8265545933346702, 0.049598326259108226, 2.248299655517281, -1.543065688890688], [0.8749644132674582, -11.239511525851709, -0.028859676244564574, -2.117500854696843, -1.0627517352144766, 1.061325631466966, 5.400454270595185, 2.4069796087881232, 0.11411574949511646, -1.8446972787830858, -2.4878429791176138, -0.7236134958885594, 7.6856067918094135, 1.8459445048338727, -2.137730801781809, 3.3201220974412746, -1.2246764572825666, -0.06351667571902661, -1.4714707294479727, -4.340613344691025, -1.4383032259900643, -6.176966646832359, -0.23338021808501047, 1.4684884133585678, -3.1472256964263075, -5.950534129813336, -0.2325550972444411, 8.143284208748813, 5.793119254129983, 3.0582243046191713, 5.661335462471908, -2.2007032886746285, 0.463161237678124, -0.2960442567248154, -3.100611728672103, -0.25825636274887204, -2.349194812089118, -1.1930030295079892, 20.35181627294153, -1.3155859322327457, -0.25483948569945986, -181.42882744076562, -3.670196649990566, 0.33166510025449897, 0.07150366166569688, -0.2152368585493758, -0.9950848365768084, -1.5967488742618139], [-0.12748504842054575, 4.2139157670137415, -0.7923244728771485, 2.2223230550567603, -0.674388344764514, -0.7497468816248362, -2.313577333509596, 3.6340282239823245, -1.3408631525653654, -0.5408946087414617, -4.045507213473016, 1.4963714233132288, -5.029451743177087, -3.273590635267187, 2.0248699005356317, 2.9255506651198786, 0.4549827392720643, -0.6942825937834303, -2.73609569696748, 0.006842583760052387, -1.3030550206327705, -1.068562984255096, 2.4161786964735454, 1.2540922681223696, -0.9731132608302742, 8.84436600206396, 1.9030000258166944, 0.5611334801015613, 0.5973016739788902, -11.945879680109025, 3.1363385361432052, -0.010178238376273652, -0.5443156916241176, -1.7740898831750824, 2.7987240005646936, -0.7253084095976952, 3.214759847256793, -0.4037420519882487, 4.004997530163426, 1.2872641214090674, -0.03310848532468853, 166.71261692808238, -0.7705376780943454, 0.8195211950770592, -0.7873980385822679, -0.8457254879885436, 0.5126820344516276, -3.024754656118556], [1.3425601795462838, 6.96974943122947, 0.28058676634843527, 1.7334507646495334, 1.9311131125586507, -1.7300418179507318, 2.049637518676896, 0.29382000767721367, -1.0767324449563482, 0.7382003541940285, -0.351050220833693, 2.7512783631634083, 2.3274493827711185, 1.8302462764143783, -1.0041697865873778, 0.5596841794157891, 3.660567209007034, 0.7939621370474192, -3.8991023494113453, 0.8778987304309931, 1.9512615508732727, 3.3897389139038783, -0.47215293789192825, 3.1051722910654567, -0.8987233560826878, -7.483387918835221, 0.5881016198511634, 0.6880544312726178, 0.9349115652553103, -2.290437470998563, -5.316376504927925, -0.6357900748757448, -2.404043128776162, -2.5356877580759214, 4.760447851798989, -0.5070083305747006, -2.1208327340449022, -1.2749185870052504, -0.636837368221214, -1.2544004404852245, -1.843476587259036, 14.450658476410357, -0.17678325182491764, -0.5098565770089771, 0.18008691920315123, 0.5899123256376667, -2.145696529141308, 0.6927641302141277], [-0.7293649207545883, -35.67333648543364, 0.5754270485685269, 1.763211341180963, 0.5735952192213294, 0.7365284878599107, -0.2171250094166235, -0.6031844615900247, -2.256486250769271, -1.3642702304050551, 3.717969470022814, -3.1746192917787073, -6.667642042617306, -1.52890742830735, -4.936653316257044, -3.7066420799276214, 1.3607259965363723, 2.2170812579497956, -1.4753113488603509, -1.0882088630236093, 4.042358177895146, 2.033825308298099, -3.580718844892324, 1.012898325991949, -0.06836795051905942, -4.2483333544912325, 0.581265194418059, 2.6984638718163745, -1.968714740706478, -0.11405643123880925, -7.531363393937725, -1.7564021541820833, 1.4959844519884942, 1.8100858571072391, 1.769899263658055, -1.8973551806724884, 1.1126007070890136, -0.42052132581767626, -3.2985424214348362, -0.3226392203551254, -0.8117764163868754, 21.57155396419466, 1.648064042589924, 0.18719132232491797, -0.29478874124372245, 0.2733845408817161, 3.3187304287474317, -0.5979744112556674], [0.2370433404902635, 8.626030185101913, 0.9974208771497413, 2.410570424311024, 0.10188024072070861, -0.2591445119033178, 1.2023029307216457, 5.739746451244481, 2.8613645399470804, -1.162950475394373, 0.7176045929016535, -1.6950625355291933, 3.4710974126232665, -1.0300066537449732, -1.6234184506953337, -1.3692873251620827, -0.3833765260529629, 0.8260809737569871, 0.08139674027538822, 0.02213557597399253, -2.8880312752311483, -0.5218177033596881, 1.5059102716030588, 1.5326980967990538, 1.7524330998887332, -4.40460305376572, 2.3214738982840832, -0.6826999836417497, 0.7473517201351216, -1.789823753868433, -0.3114861346794721, -1.0795774067015271, -0.03802967217828013, -1.5976262678474158, 0.8342680934061885, 0.9558053706422378, -1.7883430353426713, 1.2668813002910972, -22.322314193554778, 2.9249861844225675, -0.28914241878532176, -11.215565161786627, 2.248109902547524, -0.41408984652899805, -0.7101801644066638, -0.3075901217594489, -3.238030211695923, 3.6551369940054173], [1.4149818894886501, -26.06785261755556, -0.527244764851185, 0.337164478640576, 1.5486288426195405, -1.7188534109976168, 0.49911201319753173, 0.6976081663300938, 1.1853592142304665, -0.3098774117050868, -1.6367392287705809, -2.9887539649385437, -7.567447615101686, 1.0880770220774663, -4.722535749089639, 0.40274038999041817, -6.797299428619928, -2.2464644733431656, -4.403612035069371, 0.27618129949946696, -4.579494037466799, -0.5942999329129254, 2.0398500306507388, -1.7565484313599589, -4.668406625953482, -14.12228681048858, -3.254155754397182, 8.279044442170907, 4.988055620372119, -2.6356785269510743, -2.8415427312490538, 1.0081612813762362, 4.226335033361904, 0.9782983957644723, -1.587225084566246, -0.37189909019517015, 1.9352427378589365, 0.8137603316937786, -9.765748595863707, -4.0442519913213015, -1.2334593104466183, 91.02965271001388, 2.516776425547328, -0.5580539990916572, 0.20768572712828437, 0.06912710108000152, 2.466206429866316, -3.134148351393829], [0.09246884639674807, 14.20321744773823, 1.2965132633262773, 1.8579311857655896, -0.8253141179784945, 0.7087720067150969, -1.185137820127815, -2.62862035666183, -0.8117811525059732, -2.558980032971676, -3.6483288827041602, 2.0965083066056214, 0.6021483772388928, 1.9685558536639696, 2.9487519874809185, 0.6035505795302251, 0.7686965653829593, -0.7525331990178257, -2.3941333683863286, 0.6319240293515618, 1.8626253460297963, 1.7957490013455089, -1.6552594148043602, 2.1343716750943917, 0.43032354369479425, -3.3369776248755354, -0.01946927884448983, 0.42745565418216463, -5.194988971318331, -1.1123178710967663, -3.5450015006428037, 0.6423904190325206, 0.5799944503366529, -0.8844045128447866, -2.632269874226834, -0.5465754988015383, 2.069671573126536, -0.8342620081224705, -31.43016804428763, 0.17987741833966356, -0.2611313258748641, -128.52771780872843, 4.675201621546484, -0.8083751798788772, 0.8178252178239156, -0.2604505895454154, 0.02596645067437331, 1.707280914462065], [-0.9471344627892389, -26.259768369940435, -0.0945932498509065, 0.33713375257229683, -0.40456057927270384, -1.4462711510022699, -2.188650452572955, -0.1887342898958761, 0.4571452231447045, 0.661325437602955, -0.8991251007197089, 0.7432857430234224, 0.15542992800517064, 0.45611075623702546, -1.0287995687978524, -0.45001100835811914, -3.200886798605134, -0.40031571835112706, -1.466635034321701, 0.40334554874694506, -0.22650448535655687, 0.6990733441679378, -0.38027314430263737, 1.2585289813717335, 0.05151002511710012, -3.559940181067779, 0.4144919070843084, -1.6016460772508097, -5.351355143321259, -3.465220064258668, -1.5874529832381816, 0.18311206167682748, -0.14257886770128658, -0.8751128737474033, 0.44527621066204637, -1.4426355143355412, 4.935213495908077, -0.8292182072581492, -17.833021648734686, 2.4885217351682707, -0.20890522904269987, 201.52172460433593, 1.4595822169342907, 0.2864860940398833, 1.1003762979560026, -0.8885437505093131, -2.7169556764893468, 1.3980079478136904], [-0.7022773113291556, -14.93054901286355, 1.2310853648356888, -3.0536052381008085, -2.2536337344980395, 1.9148550201497083, 6.466351426453558, 0.039794055284650624, -1.0961371778923132, 0.4698650899176769, 0.012261771294454474, 3.578941257486612, 3.360791744537191, 3.625051789275683, 2.7110760522314035, 0.8378233969106408, -3.093039433959415, -0.06468514320737272, 4.026087781478178, 1.7188408513065263, 2.0100616657683084, -2.1869221559963363, -1.2323848356244516, -0.7979965993525109, -1.7953776567959894, -0.15049557095150753, 6.305046199711231, -0.6327677012248494, 1.0458606059701125, 2.9466243973171458, -2.266978993774642, 2.184896730838876, 4.438996171852205, 0.6120516230773417, -2.2644544415075893, -0.7156823252068778, 0.9110528920857152, -0.37550159729050003, 20.024125138392126, 1.2302349523715514, 1.8444181016417995, -70.40064738868278, -0.8701959160233402, 0.12629203310323853, -0.31739444240661074, -0.11173399652682271, -0.8498483268571253, -0.038149141784523846], [-0.18291638291016893, -12.231377714024227, -0.2001701761609912, 0.6247259744996277, -0.06098802734088464, 1.1265436528319845, 0.9058519824230604, 2.9706802838863138, -5.829198113190704, -2.576461832506962, 5.466060675521733, -2.6513635773330946, -0.15976520182073986, 1.3377480263684014, -1.1691022786209377, 1.2238555270662876, -0.37533676039298647, 2.071145918038623, 0.7457924913735334, 3.6139033731680574, -2.029743669508202, 2.0396819628123057, -0.34518466225420824, 3.69741126188006, -0.7672931583810491, -2.220426141620908, -3.4488442474975605, -4.681494548323724, -1.3457867881882908, -4.7786683161487895, 1.9644480385321632, -1.3306936040394242, 0.2525576136864592, -0.957462372642805, -1.7471825147226638, 0.6836651298990832, -1.1475022077835524, 0.09594372404267786, 3.162102448114836, 1.8495918472780566, 0.31563611916372897, -52.261785360810094, 3.1181010143241443, 0.3950576381144879, 0.5531103775179054, 0.16659527261970877, 3.010466958770626, 0.4529795880912144], [1.0090252277860212, -18.928296292634712, -0.9387222276212828, -0.4746171915227731, -1.8594036586037122, 1.9463178132566892, -2.9063212218208827, -0.1253376630453023, 1.074249760779972, 2.5571338660793477, 4.747228306208055, -4.330877289565002, -8.828114047529473, 1.207587949983963, -0.20663068161098214, 0.03407886163002114, -0.574247955377926, -2.8657485569656935, 1.598293421078527, 2.27999024715269, 2.49844421200987, -1.8649342905704784, 0.015639982321969174, -1.3229697541558076, -0.9528274812347002, -2.3195536462239885, -4.585156662361704, -4.510296425523473, -1.507255139863756, -5.7401789769743345, 4.702104475628281, 2.5530941996699985, 0.14492541972605696, 1.1750244587421035, 2.5035996295655045, 0.6024784072588788, -4.9823220867039035, -0.2055962389234232, -8.173274058200857, 1.270219144926127, -1.171749044905424, 71.5265787275391, -0.531227035632091, 1.382563766288195, 0.3605512520220798, 0.020209801580587557, -2.4177299749905137, 0.44024492999790804], [-1.4039804224368573, 37.00911828090446, 0.7845106998274538, -5.319280883555949, -3.592049415654246, -2.125931361472384, 0.4307179602307846, 2.1081388281783595, -3.6964447642985014, -3.4480368882464303, -3.6034957303747386, -0.6097029041771537, -3.194207317692832, -1.3354057294898687, -6.354371056476117, 0.8730440438652388, 3.947784507447309, -2.1239083522408606, -0.2751946871627869, -0.08016302304573529, 1.3033399285348901, -4.2857875120051485, -2.175360831327965, 0.128468461408104, -2.3417643736546974, 4.759850516671798, 0.8881613672939527, -8.185504222443532, -6.22373582387852, -1.5597234229275394, 2.7795315612188785, -0.8540383261402361, 1.066682893262413, 0.32921167866928536, 0.6843537431600278, -0.5221159598412936, -0.6156849377607686, -0.652520987225593, -3.047095101405444, -0.45264417751551156, 0.6997126593252266, 180.53845858335825, 2.361058920276301, -0.11585854347739775, 0.047803136221425714, 0.30212513410683794, -2.5723352181636487, 4.129416416376071], [0.0528515049785118, -9.343052650952915, 0.7225045180119073, 0.5387126767387345, -3.8569220798054444, -1.7885452420401848, 1.4124380529080736, 1.8110252407337177, -2.0960620225481823, 1.5860010783352587, 5.088727552867722, -0.4543232133946669, 0.7017625811313807, 0.16067650007354237, 1.1461801600985457, 0.033364334260479675, 0.3753386379187616, 2.2113931443567427, 1.4046731618829078, -0.08444146884725258, -0.08398293271928026, -0.39463131530889517, -0.01554475789242365, -0.27819404561546124, 0.5282501755538056, 3.776758213004073, 0.21343021685697125, -2.5852252367431605, -0.85184831234934, 1.9698445285975015, -5.563629147074694, -0.294950487416066, 1.8781641268250473, 1.5022228540910738, 1.3417065850457437, 0.9240419034883619, 1.399565700640539, -0.1746125071630912, 46.29030076570325, 2.6239496709531442, -0.11786402608895645, 105.63900627871638, 0.1972394358585389, 0.36810654402864273, 0.6061263704419552, 0.15918225122010407, -0.7714615626137082, -2.340039219791492]], "bias": [-0.9234529576376252, -9.789915033777989, -13.761091729913497, 8.253140108543894, 34.541039616608415, 12.22646342284616, -19.40494132795721, -0.8385559383173159, 20.46821003426648, -24.59040405433243, -13.992745181610866, -38.167851425949564, -4.3018533080383445, -2.9654758427539236, -26.855246238290935, -54.08365930885847, -71.60052482482459, 18.3152923597117, -0.43674037045152164, -5.987212688046532, -5.919665069591903, -5.259139778920588, 45.599331732331244, 5.631089023291944, 48.74267551745232, 19.824875089808504, 48.590757561293934, -15.722794662577268, 8.341263701841424, 34.190577360194006, -16.783059941895132, -42.03042278582519], "activation": "relu"}, {"weights": [[-0.5241731869331758, 0.22560190142953815, 0.21803832595144024, 0.6173473443105205, -0.2826502155925678, -0.8394216409937532, -0.029477751028391463, -0.37913014301050735, 0.7939768640568337, -0.5493718978114402, 0.5509361305146198, -0.14930010340925431, 0.6572521602672698, 0.36861364875454533, 1.0882272281430692, -0.5315264077531634, -1.0550777665594055, -0.24924600120477194, -0.6333936246252353, 0.7043694840363114, -0.5261017893022428, -0.3028211597654061, 0.42606207660564804, 0.05580244851300989, 1.1849845936267211, -0.07746981840623961, 0.45445896381864614, 0.34806383397175555, -0.08182279774269857, -0.8593179878074109, -0.7879989203278998, -0.032582107182637356], [0.8063295842520949, -0.368018847776224, -0.05856933572643348, -0.4391552413865985, 0.6385348204555729, 0.5276119965138196, 0.31453750378701684, 0.5694927689779334, -0.7742273230735738, 0.04976580797303991, -0.38215531383573526, 0.0611437722645203, -0.8056802999469609, -0.12199901565075065, -0.768351062591106, 0.845638173633716, 0.9100701962059818, 0.47993083959315813, 0.7322369431766614, -0.7510130362560822, 0.2985892163337728, 0.3481119667392442, -0.2138642974980489, 0.1825532918682158, -0.982597480425917, -0.13298053833069964, -0.3493836804255285, 0.33526195996912334, 0.3552723525444852, 0.5709597434465288, 0.41165140765200153, 0.010384726524289175]], "bias": [-0.2737370494491753, 0.27373704944917565], "activation": "softmax"}]}