{"format_version": 1, "embedding_version": 2, "id": "sonara-vocalness-v2", "labels": ["instrumental", "vocal"], "layers": [{"weights": [[-1.6057986579396184, -11.674143879784953, -0.39058356889098655, 0.4221426563749046, -0.11559588510366074, -3.0223802871071084, 0.3378357134878744, -2.5895453841936407, -3.7180395020475516, -2.200891156525348, -3.5982678083321256, 2.6927114584717886, -0.45498086225528, 0.5527799988605772, 1.6382072116264217, 3.028698733350751, 2.6037120819174837, -0.23699321154535213, 0.606556851945729, 0.8469497303933609, -0.32368941563469666, -0.8510305231427272, -0.1699987680139442, -4.388550857451943, 2.0369107065098815, 0.5132008567401428, 2.449264067354534, 3.78128331543422, -4.782478300703371, 4.37160997109156, 0.9056608564254265, -0.37272471542103713, 2.001124338411302, -0.01826433739089442, 1.4740089499277884, 1.7989617691225117, -0.2778881428127686, -0.08166722087667894, 15.326605809812289, 0.5243832723030791, -0.454039512672534, 69.14342908363595, 5.455978170453919, -0.6258681697872398, 0.12734928387354547, -0.34488101068513005, 3.047596702662543, -0.3312683913183109], [-0.8742062007750835, 29.855797212302914, -0.4042429924521241, -1.1465752037727794, -5.981445036585473, 1.4284085678287555, 5.771037549418665, 3.26614273782315, -2.723012897665389, 0.043135010945729496, 6.870649260176105, -3.492003624229861, -7.012141108187484, -0.6572762791295694, 0.4212942404541751, -1.4968444632992526, 5.045495360351185, 1.2413090295677318, -3.306579758393389, -1.6009451496437894, -3.0179272520172638, -2.117930311927404, -2.1674954207359427, 2.20968095179342, -2.223070408784, 2.933690697535322, 1.9590063990618938, -9.985046857435888, -11.014777838066594, -6.625759566311623, 0.1274985481153619, -0.20686239644086624, -1.8797084231906702, 0.3334662142521765, 7.1438311700891255, -2.053705662641839, -2.7574271397522696, 0.9556406310404731, -44.60120357748947, 1.925649630705819, -3.9537587491594133, 69.90688602084394, 3.5544353960462267, 0.4281884163358141, 0.13685005113312884, -0.054357950195270725, -2.209579118735871, -1.0906509934009954], [1.677684410191313, 5.3659669393139025, 0.8056920346482913, 1.397294936550777, -1.8203474036816416, 0.9676332228164785, 2.573709891132046, -3.497733960316772, -1.3416564361381562, -3.22618908056584, 0.2817004352973354, -0.5823112444893426, 0.706902590113817, 0.9571119637659254, -1.613320016454116, -0.21244869364974106, -2.554405153492977, 0.8851803913957814, 1.8610675522260751, -1.697687826101331, 0.6099523352606561, 0.9788810355252243, 0.46182109100031077, 0.8634424878463919, 1.7694673418118114, 2.5475307225932107, -4.747035007624089, 3.5687055279124276, 4.140446644496641, 1.0353094306281743, -0.9573014732041504, 1.2800585418623596, 1.5815690438100636, 1.1637506137600795, -0.31590262778163064, 0.6831655033355775, -3.0371998463717373, 0.8015855265991543, 26.657925931686385, 5.628879730698966, 1.4852523680868739, -52.07234381519919, -0.9569560739049362, 0.14477805090194204, 0.7404947110453044, 0.17606924703665966, -1.765412423346243, 3.005559716706101], [0.07904875021046288, -37.46864030135623, 0.4881800228148875, 2.56069733677866, -0.5732670913220558, 3.115047214637244, 3.6259117950619784, 3.714243324569822, -1.3404035329049164, -0.40266334493540884, 0.11645586407226133, -2.6713643252769144, 3.9197438456782985, 5.3888100607113385, -4.419585707671261, 2.388906453315768, -7.317565543689899, -4.3207371317995635, -4.227519352785321, -2.148540795926954, -2.9292389367869776, -0.14077792213873233, 1.6457592580889775, -0.5966407014834489, -3.175914367692758, -11.51991390905749, 5.1009958804849225, 6.196659098441127, 9.390032116823864, 0.8075177454666629, 0.8044648729839736, -0.5605117645736744, 2.4020174536992758, 1.9003685134813124, -6.082131397528938, 1.8119286356735342, 2.3226107493715613, 1.0721614990550672, 2.1495651618316045, -2.8516134394153614, -1.736172759826164, -26.38061333690556, -1.3418307286618927, -0.030105794204899738, 0.06249689355245848, -0.5895177292103996, 4.225238664116995, -1.281577061518045], [-0.44584796491150896, 29.032524404833175, -1.3698341446650086, 0.12697015359349847, -0.857388247663899, 0.24730193580728443, -2.6210850776121215, 0.06354805687768526, 2.658991062246041, -1.115566563689752, 1.3759139602446413, 3.4617049148234136, 1.30489811596844, 2.3550814516357836, -2.159476305596817, 4.430738942331965, 2.3563875899429556, -0.17629806550508986, 0.10109349854303216, -2.480766671484818, 2.036966857669837, 0.16998326136467728, 3.0914155468451456, 3.108857453484414, -0.9883712461290438, 4.110927770816569, -4.340539439054798, -5.534715611926858, -1.9023137250749427, -2.340600435957301, -0.6820320795450485, -1.0482212854718012, -3.4942934116031115, 0.42304748493239086, -3.6928416487784723, -0.9617085746570806, -1.1894724285869245, 0.38878042532447427, 54.279769934941065, -4.634232801968228, 0.850541227413204, 123.07333736468424, 1.0781250320692293, -0.7617391045072632, 0.2608819270761837, 0.46520298274578276, 4.887738794035898, -0.9323950464473593], [0.4207540769938559, 10.51878037676124, -1.3554306547755495, 0.8915805865236491, 2.3086083698245012, -2.4780349197910483, 1.1442242572092833, -2.549010642636245, 5.318831918505611, 0.8480272464316599, -2.2292187750414163, 4.544467413426689, 11.952415090416752, 0.04811725652266591, 2.8966110893206714, -4.952133111030663, 0.25232456578063656, -1.6369227014733476, 0.38210839254704304, -0.11461231184974219, -0.8095127798111165, 1.4376842668162806, -2.5425291863213038, -1.265049975383386, 0.17124163466539916, -0.18518547026000998, 2.311767806492142, -7.34282900691299, 9.13126854355101, -0.06563202926167261, 0.36244830627613156, 0.4709905310447687, 1.87384030410917, -1.048197016664246, 0.6278358308001887, -2.4572306989775687, 0.9137192445798519, -0.10599069119456422, 15.041865428319737, 1.7930582457140327, 1.169831283240944, -104.7282396224912, 5.581794129413546, -0.09933005601976261, 0.9974074349505616, 0.10953177675769551, -3.041708651895036, -5.182566823910218], [-0.6600792231704505, 14.139280618146678, -0.9146711819947928, 2.766697428530267, -1.0560180140218483, -1.7439284058196631, 1.1929419751621342, 3.6902834985285327, -0.654881290169606, 3.1421424556848803, -1.4106326877829827, 6.723558814426457, -2.13245421192957, -3.747387161253533, -0.764343619515041, 1.7462366188715472, -0.1847466580827899, -2.4639369783210974, 3.1912238809070903, 2.8069805745170338, 1.9530371800341733, -1.475532831559039, 0.0649479873641135, 2.5662676492090366, -0.4125238194771973, -1.6987035666502062, -0.4947325139485232, 0.7748768105455376, -6.684092658929109, 2.1132495301433996, -0.10111334265571643, -0.17088882061127963, -0.15595314092284732, 0.1874436735069036, 4.276981194619293, 0.5936711983191747, 1.7836427818455158, -0.49143676488153354, -17.966678586073645, 2.5848903222133965, -0.47501233129722886, -13.84773073014251, -3.4640200954802753, 0.6074867294413334, 0.5178515096332579, 0.13813891318476404, -1.7422656741824518, -0.5243812513845794], [1.015978172991573, -5.960129570475948, -1.3997596806908736, 1.3806012167316768, -1.672957504134033, 2.9953113405409124, -2.184536439268035, 3.0482223939907134, -0.8925003374559971, 0.6141006534872835, 0.5986698513539493, -3.477288567396582, 4.620669285683846, 0.44385317620538906, 2.8394529893436244, 2.5388776631900005, -2.6806648429286355, -0.7887694441917342, -1.4263930641558413, -3.872954683522289, 0.1744990421335841, -1.5093151521008248, -0.9591929444168583, 0.781368547277955, -2.5572546022660823, -2.378531617393894, 3.998592441444234, 2.3093779662863723, 8.753562916284135, 11.014528933247695, -0.6528553581910307, -2.5808514983231357, -1.492693817154449, 0.176457053456117, -2.3680850272615066, 2.9335820758952598, -2.1864026852280167, -1.4211076624329357, 19.880131829940638, -0.2654504940659922, -0.9904106351188602, -85.31696221954556, -4.389153478496531, 0.8244818917500998, -0.23316587816813578, -0.010352507097049856, -8.055964970445197, -2.434934639712491], [-0.27795830036786845, -36.01903276831573, -0.3162975825952607, 1.4504646721995569, 1.9332850798294738, -0.9909071262423501, 0.2919626767870307, 1.1635759420358434, 1.894898018353136, 1.1194558483844608, -0.5276096922612327, 4.833430664835001, 3.4432633364207774, 2.393937081629702, -2.120616507680636, -3.1437581339032294, -2.6363220410543926, 1.5712756360736428, 0.3544991858177005, 2.860394368640061, 0.5195132968221827, -0.4990298277974347, -0.6548787112958357, 1.478805961952977, -0.0020637896668618816, 1.0962686934693395, -3.160625428439251, 2.125319862227025, -2.357323835660622, 1.8353883046011639, 0.8902051446157637, -0.6640535257116397, 1.2695157841381914, -1.8547876331383268, -0.5628050249190071, 0.11783485798172301, -0.21117328316565925, -0.06856837216926938, -4.715124850671412, -1.4996443067854421, 0.037367400554998736, 107.30659459535995, -0.2177725115870425, 0.1779717918648187, -0.8651710690320894, -0.1704104183874375, -0.3282240604098412, 2.0485162747230103], [1.3403693420210832, -36.41073030844063, -0.8152452095310874, 1.613706759418892, 0.3796515869332893, -0.21140112213833487, -0.7555889255985764, -2.5617429943578065, 1.6564063398605198, 0.6174662639689009, -0.5434289113454575, 3.434337070056926, -2.073546288698024, 0.25558010366154915, 2.4354730055652483, -1.6139770116284569, -0.9589150282674875, 2.2356102930117543, -3.7373955206601432, 2.3867700023693685, 0.16332559350429982, 1.224840469834805, -1.0077349254898815, 2.2330814593928534, 0.892491404045629, 1.856332430018908, 3.2465736233637075, -2.5000232437777328, 1.3132953536634115, -7.0911652617999525, -1.6615290993116711, 0.04662482049087569, 1.3162828515264529, 0.4169846850781169, -0.6414358103134206, 0.4348853593325542, 1.3388208322472743, 0.37848596661328743, -3.1311569064125506, -2.3131971350786817, -1.3609904761317826, -14.49271894942011, 0.06716908379953267, -0.36987335527526, 0.4210488018526273, -0.45056677149809576, 6.2642132577817575, -0.6427989725552685], [0.5493666794886594, -8.745627897216012, 0.7342015345377649, -0.5924468028829485, 0.9681537698094028, 0.08734605923149508, -3.107489174011766, 0.7668526913419011, 0.0744706059841719, 2.147692964857707, 0.4875512036727408, -1.6204733760827819, -2.1973830540978874, -1.7875283996872706, 2.0631455295007353, 0.11486921036620452, -2.123927985536819, -0.7608303695503437, -0.14131475706794666, -2.3953347037434463, 0.4843986042491572, -0.8542929585695304, -2.6529849390153553, -2.0093185206454764, -1.1712692410877497, 2.249194327014307, -2.959488447119154, 5.2736231413195345, 0.5653169027136031, 3.0572375135257146, -1.434937256448424, 2.291510680669559, 0.12274505747679533, 0.8474101729171892, -0.6521190449611862, -0.6540619044547115, -0.16878951380492418, 0.09670843327222048, -18.123317411799615, -1.6561921979029508, 0.40909640211804027, 87.00946799957534, -3.85641507299667, 0.5345162687228375, 0.40718473100187713, 0.3245091663710797, 0.5956815192594612, 0.34688273494565847], [-0.7900278229528747, -0.4200867344491276, 0.15248348351619523, -1.6081518384434152, 1.8832102634514665, -0.1933317580029548, 1.761559029015476, 2.303393615076176, -0.20993962501742452, 1.4667235874033193, 0.37024139189141964, 3.4573720560309735, 1.6542937266736675, 1.238877610510597, 1.4689031950431133, 3.629643884593824, 3.6213879150063146, 0.6054815679860955, 2.407611375368541, 3.372514179113096, -0.5331911958135811, 4.469072426214658, -4.334260070645299, -0.18378465597850094, 2.6756299705284476, -2.028246541123705, -1.8668492606923186, -5.3038039314665815, -8.302329993925161, -4.127459189512435, -0.5322718678469353, 0.03629388590468058, 0.4383022707486007, 1.8640155999906012, 0.6164736819103777, -0.9677737737151932, 1.046110618960503, -0.01893293829148783, -21.045624749982842, -4.245532772105593, 2.1992261015841974, 37.98954356586475, -3.2317047736359616, 0.14047817463007148, 0.8633204262413795, 0.49501632599621614, 1.5371317623152807, -2.986382213645937], [-0.061916410490728616, -23.002385588986062, -0.14110468290953176, -1.568740994543096, -3.4303432488889243, 0.4846755066581881, 4.231639238955958, -1.8376859287937797, -1.46049998459718, 0.9231828231175838, -1.1414244305605339, -0.5339750461149206, -0.357057627081137, 1.9130572838202464, -3.460905981849393, -1.806075286577386, -3.7678334478890183, 0.11872616481849009, -3.8052330775759104, 1.8433282982453918, -0.6089734335366923, 1.217309329632734, 1.0732471542023865, -1.9559933468721986, -0.47421512691029005, -6.838661996965481, -2.384781034398015, 1.456580000502044, 5.225033530158224, 6.980782023540315, 0.3690744067893532, -0.43577963500766725, 1.2273031884841774, 0.9286450494323418, -1.3341931764556065, -0.11939207098336342, -0.2543562688582739, -1.0604763163358513, 55.581483650730775, -1.8416711432870387, 1.373939895411297, -123.27477896561344, -1.9721255107657951, 0.4335066106221125, 0.18476019275105748, -0.20570205418022838, -0.8145756171638223, -1.1219381932691972], [0.4556714185911209, 38.28116702536427, -1.6686113260820108, 0.5721866091298824, -1.461751276107734, -0.436264757392684, 1.635187467911324, 1.6903431465495449, -2.8888714305333214, 1.983298355420291, -1.180829886406797, -4.886378033668666, 2.8138855667886946, -0.559578584893582, 1.6637147847361604, -1.7191651620160608, -0.15015176686268714, 1.0553889611584717, 2.0040973880349724, 0.5525754546284681, 1.5002485406842, -0.22415418333425885, 1.4293318425207715, 0.077509979514585, 0.14203490557692597, -6.416646476337123, 7.234569631965707, -0.03235393959993916, 3.0892154034810027, 3.0971216933423826, 0.4066606274681402, -1.4983268755362102, -1.2757322155960256, 1.7464505279694338, 4.87137762195483, -2.2695228550305404, 1.7288727887919912, -0.9944351664211319, 10.27641138996589, 2.2985091460766744, -2.4263051326293446, 40.19499421237603, -0.7838802502931795, 0.3545066367834346, -0.40132251769508653, 0.5287395124727481, -1.7167299799934288, -0.3613792557695987], [0.22694232445029555, 8.248751030276868, 0.3056454789929968, 1.9592724084898, -0.253835586895671, -1.9276689877299384, -0.13230056866775539, 2.7745831491757107, -0.09994582872040345, -2.9518694336907028, 1.064836721996185, -0.13885860281130344, -1.7174620429099223, -1.0841647759949893, 0.4701380964933026, -1.7734413757716605, -1.8594411937326523, -0.8149315106036489, 0.29517637069703234, 0.6980813499291153, 2.3413921804095046, 0.7355194722910078, 1.0896385236053345, -3.5459818855490837, 3.145612100001687, 7.586281018262173, -3.297746536394424, -0.6266974950380315, 0.2898320613858173, 3.403086978090149, 0.45188464758464836, 1.0441414313196562, 0.6378464915700677, 0.9412137523936069, 0.1880266956575692, -1.2268118818113452, -1.069240641932641, 0.6038959486983977, -46.355986836454974, -0.008495069308451935, 0.551942656780324, 86.9013336257211, -0.7908665004876506, 0.0995495108471139, -0.0980375132401235, 0.714794839468697, 0.005746777080126612, 1.6353760563339417], [1.0022466831562602, 22.907432888478084, -0.8436738933136803, 1.435158201189374, 0.7584648972963033, -1.1038870177872153, -0.9954776865655554, 0.014536358222956168, 0.32775898080748134, -0.6024248033912933, -0.10716433296682723, -6.521923982707709, -3.346162998649372, -0.061601002970669456, -1.1966520882158243, 0.04738186794473631, -4.445899750340265, 0.7272728244003639, -0.5655759917252691, -2.598344879545564, -1.3684587842301001, 1.0765048213759159, 0.5081452183590132, 3.774140291811698, -1.3639674491608627, 0.19604761232241283, -5.227183845441357, 2.7843756819414205, -3.2825458520312014, -1.2942890714617725, -0.25249016990779727, -0.9380629809704385, 0.45282974923148184, -0.8529268189042709, -3.79725501431188, 0.4331276016125375, 0.17086042026806933, 0.5697861765936391, 31.937538056251167, -5.54588653744575, 0.08747550573258758, 30.208258957652784, 2.922183395894437, -0.06607061979713692, 0.4443110960038386, -0.15889937667599144, -2.302613340836083, 1.339046750097071], [0.3403512240348307, 13.620390389455052, -1.1699115203443164, 1.9044116820238444, -1.872255291142921, -1.7572695670308744, 1.282445299590356, 1.7910585881639591, 1.5419118611920488, 0.0039048701904238156, -0.3093892023407011, 0.6591702552300006, 5.540942169553955, -1.064997091276725, 1.5257236173005193, 1.1539499608193033, 1.387081188200287, 0.8224061049954051, -0.9582709797538942, 0.14697391995687892, 3.1547242784268867, -0.1870668552896154, 0.23245470400684734, 1.2662392937661422, -1.0593142804045605, -1.2986169287061793, -9.793150432816207, -0.8444130045127903, 9.444387313923727, 1.8328228748978237, -1.6225630678870073, 1.2840169411981062, -0.5110008720857799, -1.3995398498772957, 1.0741136282675554, 0.481848732274076, -0.5958426447212323, -0.7836976118284565, -1.231219899254615, -5.826590356569844, 0.4531117453996634, -44.486241154750424, -0.1578993489132332, 0.18255404592277968, 0.5479105052358543, -1.2951269195390915, -2.926363659399131, -3.131385698183309], [1.1866041499788318, -20.588598762036543, 1.0046929929569879, 2.476931388947347, -0.0023562383856415054, 1.013301966414732, -1.3989759695892001, 1.5223981257906494, -0.32189854521776784, -0.15869185001007546, -4.114579174144004, -2.98212012962131, -1.001011160305963, 2.829847853583804, 0.7838717265858399, 0.29479372465819936, 0.6303162713289697, -3.0651301079300186, -0.3831826377235929, 0.06487304169064174, 2.601791623047494, -0.5081738036339052, -0.9863576554671035, -1.7904230501220268, -2.629364070293041, -0.6523360792610831, -3.7010174133331657, -0.00507651849104541, -8.173519542204316, -3.080296901138671, 0.6221773363816022, 0.28066040665591835, 1.0704151035421834, -1.217754286421116, 0.3949646691575507, -0.1937065531241017, -2.794272520583941, -0.6670658121551356, -3.674531304957248, -2.163303781067961, 0.7833952796811435, 155.1926007196537, -3.223704441390572, 1.5847000069479122, 0.2779316183871336, 0.4287559646188609, 0.5340914276823595, 1.7978630284931252], [-0.3508424224291672, 30.615498278052577, -0.006424883724338853, 1.3905512378326073, -1.570360349032546, -2.1542873354676186, 3.349463340122741, -0.6570015036499852, -4.913778727663718, 2.4960547692472748, 7.08080844327106, -2.5050316876500496, -1.402522040652707, -2.321063155499731, 0.7729474184658213, 1.4448822193582165, -1.6094622132916803, -2.990658283825683, 0.09164177159451843, -0.19114236418132854, 1.628159479081717, 1.74085586176121, -0.6193770665415884, -2.3268549988721494, 0.13688902038812256, 14.262188591261733, 1.7830049138647817, -1.1716668002452773, -1.4820132908494894, 0.6097307789069029, -0.44346902526180193, 2.0453857460451164, -0.7165217247312048, -2.1181406558927813, -0.8817127457253667, 0.3739497281748091, 0.6719594548974636, 1.124515737849306, 5.502849316542202, -1.9866340141667904, 0.2750712217180099, 132.85661836151667, 1.0310901746650998, 1.0511500322346612, 1.5870938188642385, -0.0266743686925396, -2.3329893126762067, 1.8780130542585338], [0.28216211749733044, 12.845276865570671, -1.869617393576143, 1.3339879786082744, -1.4729289953702807, -1.18842557037202, 1.8996976312439409, -0.7861949747563239, 1.867618258306684, 0.8147986024388691, -0.39488785147703087, 3.3550928037922843, 4.578631416333704, -1.2142114827613937, 1.5003809278487312, -0.564381641337941, 0.26621881056190533, -0.42403765612586725, -1.1128436237134782, 2.0905546281271477, 1.2914333061887004, 1.4178825328476934, -1.9155628037422967, 1.2141334479201615, -1.3477094064295758, -0.9032814636669891, -2.9188642127993356, -8.595033692252674, -3.6450443935005556, 3.3726948812696365, -0.4888769595722278, -0.5377156062694155, -1.8938144235013692, 1.0262989769616702, 0.4685644051865336, 1.1060807256038188, -3.6432863452140194, 0.459588888127312, 10.437669495572875, 2.6621138028917803, 0.4444890853894393, 62.85948530223839, 1.0954950758804436, -0.26234884049122936, 1.0832936344965185, 0.6128081761329813, 0.5722551462580194, 2.043006064865228], [-1.1752985359333927, -28.26914731555354, 0.8189063541778923, -0.08346170480696863, 0.42248510069955947, 1.3826503238329444, 0.32083556294592, 2.295924775600121, 1.5414542943871867, 1.473187027959512, 1.3301859386946593, -1.5915637499361897, -0.0038672392160312625, 1.1580773852495767, -0.33423505463609887, 1.8237455805672107, -3.6810558365397785, 0.15385051066046018, 3.5586648086032255, 0.5637901456557431, -1.670494125482165, 0.35158013874351673, -0.09611192392010022, -1.3087125326454994, 0.552982542794949, 4.151880795407346, -1.6766020088947315, -4.07907144607073, -2.674673405172648, -7.099770982482575, -0.7865613934278151, 0.9842730231649652, 1.3782342107808343, 1.6881448170975966, -1.7383978441737178, -0.022089039764387135, -2.33008681902357, -0.9117069450115431, -9.552532331104953, -3.3204616374433984, -1.463038288596851, 26.774328409229827, 2.1138259684310103, 0.7105384185607933, 0.37728580771565423, 0.08806270808663548, -2.763332390775598, -1.788167762515139], [-1.327088661129221, -14.90322417300279, 1.3740771826431204, 0.6012713295120203, 0.6756538480441355, 0.12257313858243132, 3.1027833393070536, 1.867365127590895, 2.691878740044579, -0.9375607425623372, -0.9804445974617912, -5.152218400496234, -7.703883430516245, -2.9102017723753506, -2.854821791897726, -3.4503463452077097, 2.8738836875502147, 0.8049993986140722, 1.6295704248152802, -2.075611145972984, -1.8944518876437209, 0.7873089904071591, -3.511384336584937, 0.2761201268584752, -5.511461608659115, -5.848572187282469, -2.5973928541949007, 9.795026267666662, 4.779229088492434, 0.6974770777270759, -0.4995512578652168, 1.2635861464276827, 1.018955639388065, 2.0936050585843837, 3.0980346547406445, -0.2766950651184212, 0.2803097557607482, -0.6229843015372195, 26.544406973431514, -1.557346862996481, -1.632999282300013, 41.14593440186814, -5.129897732886429, 0.5112679757944462, 0.1345739244964301, -0.22103563949863567, 0.2751060514462436, 2.774475710784438], [0.14888049270104586, 25.029015425034117, 1.2580789825570355, 0.7620237628517126, 1.605655021403192, -0.3984716927793494, -2.516490083167598, -1.1205857060507831, -1.2102047497760742, 0.6593671748150025, -0.15446719268210907, 0.40940774948282377, 1.6045158571280134, -0.6921351226090859, 0.461496517816832, -0.8688495757231532, -2.0087144320325607, 2.8580585024409886, -1.469581304350685, 1.2616923112415468, 0.21715560636404949, -1.6798380751215856, -1.6340237661960193, -1.998105987981617, 1.9034376674847535, 4.662937489057845, -1.314586081009948, -1.648070107567706, -1.8165257608432797, 2.8222730871912622, 0.5341958848575445, -0.6030123418068406, 0.12490501844444778, 0.31147790772721207, 2.25624744705608, -0.87245614721697, 0.9641469082878357, -0.8189436942686855, 10.573120800939773, 1.0627749699673028, 0.46762323121981797, -42.33673172937394, -0.014762575156942195, 0.33817395636943554, -0.8773137116596555, -0.39188241759143805, 1.3119097274275657, -3.2393738693276055], [0.5518853495930677, 21.126303423235022, 0.4473661395120114, -0.045210952938009266, 0.830920511511373, 0.9443946024232132, 1.9071803549324893, -1.459590751029511, -2.6962127439948613, 4.461611341820975, 2.746956923536733, 1.8879909788576617, -1.8103206333718245, -0.11561738392889724, -0.6852188134411795, 2.1891577157562914, -3.564304590652267, -1.4602432910876169, 2.0313589844558173, 2.06539881243941, 3.2163414058508577, -0.9766333532134484, -2.5473351250397633, 0.9959674555503406, 0.9824817632153398, -1.4796751790212137, -0.19136210864415504, -3.1743647768229, 3.601762464686584, -3.9242926965903058, -0.030286112435943046, 1.821693994129377, -0.6220405998834215, 1.2740050340589792, 0.7756606563192309, -0.9003802926562705, 1.3531314010862427, -0.5994578548563417, 18.498528275172742, 4.937849869433758, 0.8874698631897951, 25.800230599090867, 0.6312285060748887, 0.008846277848270395, -0.2303472113611464, -0.36700799392193584, -0.21190110020709346, 0.06298906585496913], [0.9254082222160083, 25.776862920661493, 1.0534469401377797, -0.8302773988611423, 2.554995242384451, -0.45674484428438505, 0.08470772957668926, 2.1828587223316944, -3.1999222001181047, -1.135404118246075, -0.8582856272789728, 2.6053718050332946, 2.492902601839071, -0.43832602052675423, -3.842013350486739, -0.8395026996336081, -2.0176877793374803, 1.0358757619312504, 3.6029301882527696, 2.239263016811394, 4.305404871894061, -1.4576975286108291, 0.060014195988999076, -3.4920107408905015, 1.6406957682815138, -1.7729856608239811, 5.666859452010234, -0.509029776424042, 1.8231645466579152, 0.2432300614348237, 0.7402613852219966, -1.897028528969555, 2.61761700824569, -0.17787342697063105, -1.460115873956153, 0.08556033395076279, 1.2797034621775414, -0.18420167268266785, 0.44944762412934747, -2.98564895628441, -0.15248224497421933, -5.074938502699941, 3.3528144587907653, -0.11138322858255455, 0.5773340332301446, -0.12777278195922961, 2.0481379243545637, 0.4614839120577086], [-0.5622815252112101, -36.216846111277185, -0.5637839610934835, -0.8136800064417243, -1.1043942573545276, -1.4554751850010834, -0.20535312622358312, 2.7975068163832075, -2.2598724735294637, -0.9764223118408771, 0.7188085314329213, -0.655949847809146, -5.669059452528573, -0.42881876085834353, -0.437540809629268, 1.4338892462031323, 0.5825488894175508, -1.6753520769352053, 2.660399395677184, 0.11235439720979494, -2.2961848022559557, -1.1007923247993154, -0.976742802450516, 1.8594997678475085, -0.1488987759292506, 6.436613212785531, 1.8317200292184261, -2.0503464826894646, 1.1379270448977252, 1.5442633676571755, 0.5900720814004281, 1.1583666561858268, 0.8454271406195487, 0.5773843768291077, 1.31483103721461, 1.247922120808581, -1.1161609469293068, 0.7526711843138147, 0.20611392819429392, 2.2033098245978837, 2.474457010902899, -39.497106093552844, -3.3342823633150256, 0.2959228466059858, -0.5426874042963191, -0.34841930541535965, 0.6084924064906132, 0.29782291415180917], [0.3296366035488684, -7.562254619404552, 1.3205172944263535, 0.017770559805050982, 0.7775631500585991, 1.5644323268081721, -3.186246955147006, -0.8988432955887364, -1.1979428433164359, 1.5376301459573989, 3.7507520186646017, 5.552337675258002, -0.6019023208583334, -0.5133387628805366, -0.010756276145905444, -1.514443166216121, 1.2192647887520451, 1.1388504129385533, 1.1779142059587815, 4.0629958135951485, -1.7455214027696266, -0.0958708617664752, -1.3363765887727095, -1.8768114717172555, -2.3716412321464286, 1.2897103358489923, 0.1910825549476731, 6.42707902998609, 3.3681014256308672, 1.7883227049472614, -0.8030020478312431, -1.182768924095321, -2.201880258932408, 1.1860686638814375, 1.7105430247828182, 0.7790722522519291, -0.168250934563601, 1.8306088472394038, 2.14665737936287, 2.5047731024953146, -0.8227116119888923, 21.37174358168698, -0.7946342272558817, 0.33355758609772346, 0.09789516245184803, 0.6380858958606958, 1.9760506884806397, 0.5587401672327142], [-0.021675104613677058, -8.251486799876037, 1.1733400238876692, -2.3550356903887026, -2.1822095918862923, -0.4727970562647781, -0.28051005923684896, -4.285938695002476, 0.7733887393149598, -0.8186989727407994, 3.0869409511698986, 2.1247708144754003, 5.734718459357057, 0.16354105531201812, -3.389935039617601, 3.8427738315620767, -0.2385984290077914, 1.4731831874009336, -1.6875710680939269, 3.690405294664205, -2.3993150790821303, -2.605630991409202, 0.42648820792961867, -1.7711472202724727, 0.21254914512065817, 0.812915453584019, -2.2465615042232243, -2.4278307554713052, 5.623657973929039, 4.5169806784279904, -0.6366894824583227, 0.17139916805583078, -0.26924118828039506, -1.4109316495987574, -1.4045365211936742, -1.0069327082107025, -3.6480875242590156, -0.12492388088929185, -29.533089916108953, 0.8224769690504525, -1.2669835706876347, 4.525832879879119, -5.376209511000515, 0.08532862465538926, 0.4619669360229924, 0.17503721334948835, -0.6597946578419408, -0.9441911906584157], [-0.36064181578013715, -0.0980207502858501, -0.3033180366809832, -0.6011154708356791, -1.9867637105827658, -1.1835755243811281, -0.5286595996400719, 0.33052737296003676, -2.965934489805889, -3.103729483225171, -2.829610624724212, -0.8610073601242092, 4.128979235456405, 0.034032450392873136, -2.931113435248363, 0.8327940974593849, 1.7610345073522515, 1.5702974545369286, -1.1615294104106388, -0.4154622602843927, 0.767770009023799, 1.1528603125964334, -1.7616891294453747, 1.5275812870656746, 0.10689575725313033, -5.576169187400013, 2.1379765052929907, -2.8065792371138896, -0.12371714602828773, 3.161340488983664, 0.0068491460742389565, -2.4848785662570805, 0.9582609245235899, -0.4845726095990632, -0.42817801016421336, 1.664768217782471, -0.14296588983424344, -0.3659262694816478, -12.901505691359027, 1.6794034209769362, -0.5618934135399153, 24.131914842980397, 2.1180638746203506, -0.44494570006654277, -0.18831995139767269, -0.143067241691322, 2.424804702747924, 3.176536215814519], [-1.5361096482910974, -6.638800375847815, 0.29446761080943384, -0.6565670620799401, -0.8451171465780278, -3.0671814732905878, -4.534084044148979, 1.3944557778478326, -0.4028107598172277, -4.6458527336833635, -4.54703598894926, 1.19012277994731, 0.31341144707820245, 3.700144453296278, 2.719340632665893, 2.501576432790582, -0.3443488600494492, -1.077728787215585, -0.5825329643855697, 2.7186773079733824, 1.0522255839516066, -1.8718326347470893, -0.2768372416658792, 0.7442474324871942, 0.020745946541209814, -1.1919158762268907, 5.766028079247877, 2.5827291852165013, -0.014959194464538427, 5.630818809908219, 0.8808336957413753, 1.7719280371519006, -0.8047664757051549, 0.7633937875802191, 4.276115505728066, -0.4421321353079131, -0.9296766227124279, -0.23133596504836434, 22.410084717722896, 2.5432509271264414, -1.0380739110398687, -111.63227516614369, 1.4207941350871722, -0.8147448125388407, 0.04292549633277048, 0.28604995419001567, -0.2373010030738232, -4.160497698876271], [1.1400160484301802, 2.377263495483865, -1.1608651794331828, 1.5350672071277938, 1.9593730444655653, -0.19836140964144006, -3.012248673054061, 1.24562209398524, 4.46772555857225, 2.476087516894802, -6.473969432924678, 0.093822845981286, 3.3968065218446757, -0.267363063252637, -0.38628500620216455, -2.9216837488570135, 1.705980059313532, -1.3280987141172238, 1.4929858483075398, -3.4657896638708934, -1.3344500796693641, 0.11710652254895426, 2.541357113968552, 0.04714085812466265, 2.9124914924175975, -5.711962792321858, -0.5004402117421403, -5.261832561924926, -1.4161233967620248, -0.5482284565453265, 1.913267160694318, 2.7951700738995235, 1.6219341267867884, 2.8521445313785816, -1.0710609528815427, -1.5257508971025178, 0.39990518515288176, 0.022950839017557574, 20.422914199118825, 4.1982359229749555, -0.32464822193731935, -13.245946700633043, -4.388699920586087, 1.5425171243195503, -0.626800093379283, -0.04455726124338608, -2.7714728774761466, -1.7817319400671856], [-0.5884556450751341, 19.457331430119154, -0.7923654868392735, 0.5156745742518996, 0.7910240214769616, 0.4983211293603993, -2.2229773792067955, 1.8442586374195333, 0.23310786390543425, -1.666058589820327, -4.412039242695363, 1.9953322373142015, 0.021627819445610142, 1.259328003289796, 1.6735447861903052, -0.20690190508779488, -3.5627403687038415, 0.3189838374841349, -2.567070491027531, 0.19752447871237164, 1.1355262239631865, -1.4526924629958136, -0.5502251053876878, -1.7315449513768073, 0.14802878737415992, 1.6774934158171237, 3.8962201861689834, -6.0168406401868335, 2.1124922569773803, 1.7284605756836682, 0.19303929213872703, -1.499759292080796, -2.5263729839463607, 0.5798769724370755, 1.4259664208788614, 0.07733787965114544, 0.44123169634640724, -1.4534393031103257, 10.37142447655132, 0.4824238090297773, 0.5495546365456716, -25.01828681409141, 0.3008213329054287, -0.5656283874451895, 1.0733703492407727, -0.07248194823566939, 0.6796251937358081, -0.53895969431481]], "bias": [-5.73383710659469, 29.38850377519517, -39.48491444260248, 28.60797125863927, -80.96538464596081, -31.50843150966868, -1.5371812215234948, -13.782799437302128, 33.16629300134621, 36.46938448004774, 27.49485298826141, 18.762654485401733, -23.584959980911442, -49.97613276789331, 31.492405400264044, -42.9554603122441, -10.269745327114578, 29.250904495435254, -41.771967757687364, -26.590179139593378, 40.77674069790312, -6.0428075523699745, -33.69031017358317, -45.749859978629665, -33.08043469881182, 34.78947463309646, -6.174539250527002, 41.08281480776826, 14.757563112715621, -12.552239430438874, -23.003270749094057, -26.318758026155514], "activation": "relu"}, {"weights": [[-0.4995709343441122, -1.2231000791245634, -0.49201622165416603, 1.3239265134160463, 0.5890408602739106, -0.8015612498432528, -0.27606440473712834, 0.6464616404124911, 0.22838132064357283, 0.19235124507588888, 0.052366870650802526, 0.203316286069867, 0.6760004636819924, -0.32805676045519483, -0.17599754048421398, 0.6484786848162185, 0.720887856487486, -0.16413474298385944, -0.9266425624763209, -0.4327301133933722, -0.4572718019142873, 0.5999108583531986, -0.08567991069149579, 0.18046394383351114, 0.03457638591513147, -0.28440752623665055, 0.7534595888283477, 0.4801922413755738, -0.258463306223241, -0.35923784644742146, -0.707183488522909, -0.073390455113951], [0.7850964918608522, 1.3202472308812137, 0.7289816995762042, -0.9740604979654172, -0.8358164783641598, 0.9875277794630394, 0.43132438705325077, -0.49255942153592364, 0.36192005297052293, -0.02358564109201764, -0.045826854486653704, -0.954572631076607, -0.4684528392251806, 0.45659004034077805, 0.20181231003854175, -0.35895898615449207, -0.3000836104436541, 0.4121762859793183, 0.7175676290153103, 0.4132978510202903, 0.24709535138295585, -0.7202322419475198, 0.1148988555839795, 0.08121142740631564, 0.20638039563480234, 0.5603868987171631, -0.31074234026966596, -0.5388119798407249, -0.11105522750883697, 0.5516042567611322, 0.7518070090583088, 0.2217655142688117]], "bias": [-0.02712468702422666, 0.02712468702422693], "activation": "softmax"}]}